digraph Tree {
node [shape=box] ;
0 [label="d11 <= 0.696\ngini = 0.485\nsamples = 729\nvalue = [428, 301]"] ;
1 [label="a1 <= 0.618\ngini = 0.466\nsamples = 534\nvalue = [337, 197]"] ;
0 -> 1 [labeldistance=2.5, labelangle=45, headlabel="True"] ;
2 [label="a7 <= 0.656\ngini = 0.484\nsamples = 452\nvalue = [267, 185]"] ;
1 -> 2 ;
3 [label="d5 <= 0.583\ngini = 0.463\nsamples = 355\nvalue = [226, 129]"] ;
2 -> 3 ;
4 [label="d7 <= 0.452\ngini = 0.431\nsamples = 283\nvalue = [194, 89]"] ;
3 -> 4 ;
5 [label="d9 <= 0.352\ngini = 0.468\nsamples = 206\nvalue = [129, 77]"] ;
4 -> 5 ;
6 [label="d8 <= 0.519\ngini = 0.285\nsamples = 58\nvalue = [48, 10]"] ;
5 -> 6 ;
7 [label="gini = 0.05\nsamples = 39\nvalue = [38, 1]"] ;
6 -> 7 ;
8 [label="gini = 0.499\nsamples = 19\nvalue = [10, 9]"] ;
6 -> 8 ;
9 [label="d4 <= 0.305\ngini = 0.496\nsamples = 148\nvalue = [81, 67]"] ;
5 -> 9 ;
10 [label="gini = 0.48\nsamples = 70\nvalue = [28, 42]"] ;
9 -> 10 ;
11 [label="gini = 0.436\nsamples = 78\nvalue = [53, 25]"] ;
9 -> 11 ;
12 [label="a1 <= 0.238\ngini = 0.263\nsamples = 77\nvalue = [65, 12]"] ;
4 -> 12 ;
13 [label="gini = 0.444\nsamples = 3\nvalue = [1, 2]"] ;
12 -> 13 ;
14 [label="d10 <= 0.714\ngini = 0.234\nsamples = 74\nvalue = [64, 10]"] ;
12 -> 14 ;
15 [label="gini = 0.216\nsamples = 73\nvalue = [64, 9]"] ;
14 -> 15 ;
16 [label="gini = 0.0\nsamples = 1\nvalue = [0, 1]"] ;
14 -> 16 ;
17 [label="d4 <= 0.4\ngini = 0.494\nsamples = 72\nvalue = [32, 40]"] ;
3 -> 17 ;
18 [label="d2 <= 0.258\ngini = 0.404\nsamples = 32\nvalue = [23, 9]"] ;
17 -> 18 ;
19 [label="gini = 0.375\nsamples = 8\nvalue = [2, 6]"] ;
18 -> 19 ;
20 [label="a7 <= 0.541\ngini = 0.219\nsamples = 24\nvalue = [21, 3]"] ;
18 -> 20 ;
21 [label="gini = 0.397\nsamples = 11\nvalue = [8, 3]"] ;
20 -> 21 ;
22 [label="gini = 0.0\nsamples = 13\nvalue = [13, 0]"] ;
20 -> 22 ;
23 [label="d3 <= 0.657\ngini = 0.349\nsamples = 40\nvalue = [9, 31]"] ;
17 -> 23 ;
24 [label="d7 <= 0.773\ngini = 0.272\nsamples = 37\nvalue = [6, 31]"] ;
23 -> 24 ;
25 [label="gini = 0.239\nsamples = 36\nvalue = [5, 31]"] ;
24 -> 25 ;
26 [label="gini = 0.0\nsamples = 1\nvalue = [1, 0]"] ;
24 -> 26 ;
27 [label="gini = 0.0\nsamples = 3\nvalue = [3, 0]"] ;
23 -> 27 ;
28 [label="a1 <= 0.408\ngini = 0.488\nsamples = 97\nvalue = [41, 56]"] ;
2 -> 28 ;
29 [label="a3 <= 0.741\ngini = 0.399\nsamples = 69\nvalue = [19, 50]"] ;
28 -> 29 ;
30 [label="d3 <= 0.519\ngini = 0.35\nsamples = 62\nvalue = [14, 48]"] ;
29 -> 30 ;
31 [label="d6 <= 0.179\ngini = 0.303\nsamples = 59\nvalue = [11, 48]"] ;
30 -> 31 ;
32 [label="gini = 0.0\nsamples = 2\nvalue = [2, 0]"] ;
31 -> 32 ;
33 [label="gini = 0.266\nsamples = 57\nvalue = [9, 48]"] ;
31 -> 33 ;
34 [label="gini = 0.0\nsamples = 3\nvalue = [3, 0]"] ;
30 -> 34 ;
35 [label="gini = 0.408\nsamples = 7\nvalue = [5, 2]"] ;
29 -> 35 ;
36 [label="d9 <= 0.503\ngini = 0.337\nsamples = 28\nvalue = [22, 6]"] ;
28 -> 36 ;
37 [label="gini = 0.0\nsamples = 12\nvalue = [12, 0]"] ;
36 -> 37 ;
38 [label="a4 <= 0.568\ngini = 0.469\nsamples = 16\nvalue = [10, 6]"] ;
36 -> 38 ;
39 [label="gini = 0.375\nsamples = 8\nvalue = [2, 6]"] ;
38 -> 39 ;
40 [label="gini = 0.0\nsamples = 8\nvalue = [8, 0]"] ;
38 -> 40 ;
41 [label="d1 <= 0.753\ngini = 0.25\nsamples = 82\nvalue = [70, 12]"] ;
1 -> 41 ;
42 [label="a2 <= 0.055\ngini = 0.182\nsamples = 69\nvalue = [62, 7]"] ;
41 -> 42 ;
43 [label="gini = 0.444\nsamples = 3\nvalue = [1, 2]"] ;
42 -> 43 ;
44 [label="d2 <= 0.257\ngini = 0.14\nsamples = 66\nvalue = [61, 5]"] ;
42 -> 44 ;
45 [label="gini = 0.49\nsamples = 7\nvalue = [4, 3]"] ;
44 -> 45 ;
46 [label="d8 <= 0.269\ngini = 0.065\nsamples = 59\nvalue = [57, 2]"] ;
44 -> 46 ;
47 [label="a7 <= 0.477\ngini = 0.298\nsamples = 11\nvalue = [9, 2]"] ;
46 -> 47 ;
48 [label="gini = 0.0\nsamples = 7\nvalue = [7, 0]"] ;
47 -> 48 ;
49 [label="gini = 0.5\nsamples = 4\nvalue = [2, 2]"] ;
47 -> 49 ;
50 [label="gini = 0.0\nsamples = 48\nvalue = [48, 0]"] ;
46 -> 50 ;
51 [label="d5 <= 0.637\ngini = 0.473\nsamples = 13\nvalue = [8, 5]"] ;
41 -> 51 ;
52 [label="gini = 0.0\nsamples = 4\nvalue = [0, 4]"] ;
51 -> 52 ;
53 [label="a6 <= 0.714\ngini = 0.198\nsamples = 9\nvalue = [8, 1]"] ;
51 -> 53 ;
54 [label="gini = 0.0\nsamples = 1\nvalue = [0, 1]"] ;
53 -> 54 ;
55 [label="gini = 0.0\nsamples = 8\nvalue = [8, 0]"] ;
53 -> 55 ;
56 [label="d3 <= 0.862\ngini = 0.498\nsamples = 195\nvalue = [91, 104]"] ;
0 -> 56 [labeldistance=2.5, labelangle=-45, headlabel="False"] ;
57 [label="a5 <= 0.634\ngini = 0.482\nsamples = 165\nvalue = [67, 98]"] ;
56 -> 57 ;
58 [label="a3 <= 0.648\ngini = 0.406\nsamples = 67\nvalue = [19, 48]"] ;
57 -> 58 ;
59 [label="d1 <= 0.353\ngini = 0.32\nsamples = 55\nvalue = [11, 44]"] ;
58 -> 59 ;
60 [label="d5 <= 0.736\ngini = 0.497\nsamples = 13\nvalue = [7, 6]"] ;
59 -> 60 ;
61 [label="gini = 0.278\nsamples = 6\nvalue = [5, 1]"] ;
60 -> 61 ;
62 [label="gini = 0.408\nsamples = 7\nvalue = [2, 5]"] ;
60 -> 62 ;
63 [label="d8 <= 0.777\ngini = 0.172\nsamples = 42\nvalue = [4, 38]"] ;
59 -> 63 ;
64 [label="d11 <= 0.697\ngini = 0.095\nsamples = 40\nvalue = [2, 38]"] ;
63 -> 64 ;
65 [label="gini = 0.444\nsamples = 3\nvalue = [1, 2]"] ;
64 -> 65 ;
66 [label="gini = 0.053\nsamples = 37\nvalue = [1, 36]"] ;
64 -> 66 ;
67 [label="gini = 0.0\nsamples = 2\nvalue = [2, 0]"] ;
63 -> 67 ;
68 [label="d10 <= 0.653\ngini = 0.444\nsamples = 12\nvalue = [8, 4]"] ;
58 -> 68 ;
69 [label="gini = 0.0\nsamples = 3\nvalue = [0, 3]"] ;
68 -> 69 ;
70 [label="d10 <= 0.73\ngini = 0.198\nsamples = 9\nvalue = [8, 1]"] ;
68 -> 70 ;
71 [label="gini = 0.0\nsamples = 8\nvalue = [8, 0]"] ;
70 -> 71 ;
72 [label="gini = 0.0\nsamples = 1\nvalue = [0, 1]"] ;
70 -> 72 ;
73 [label="d3 <= 0.66\ngini = 0.5\nsamples = 98\nvalue = [48, 50]"] ;
57 -> 73 ;
74 [label="d2 <= 0.584\ngini = 0.424\nsamples = 36\nvalue = [25, 11]"] ;
73 -> 74 ;
75 [label="d10 <= 0.876\ngini = 0.111\nsamples = 17\nvalue = [16, 1]"] ;
74 -> 75 ;
76 [label="gini = 0.0\nsamples = 14\nvalue = [14, 0]"] ;
75 -> 76 ;
77 [label="gini = 0.444\nsamples = 3\nvalue = [2, 1]"] ;
75 -> 77 ;
78 [label="d6 <= 0.763\ngini = 0.499\nsamples = 19\nvalue = [9, 10]"] ;
74 -> 78 ;
79 [label="d10 <= 0.717\ngini = 0.444\nsamples = 15\nvalue = [5, 10]"] ;
78 -> 79 ;
80 [label="gini = 0.494\nsamples = 9\nvalue = [5, 4]"] ;
79 -> 80 ;
81 [label="gini = 0.0\nsamples = 6\nvalue = [0, 6]"] ;
79 -> 81 ;
82 [label="gini = 0.0\nsamples = 4\nvalue = [4, 0]"] ;
78 -> 82 ;
83 [label="a7 <= 0.518\ngini = 0.467\nsamples = 62\nvalue = [23, 39]"] ;
73 -> 83 ;
84 [label="a4 <= 0.898\ngini = 0.448\nsamples = 59\nvalue = [20, 39]"] ;
83 -> 84 ;
85 [label="d6 <= 0.573\ngini = 0.406\nsamples = 53\nvalue = [15, 38]"] ;
84 -> 85 ;
86 [label="gini = 0.0\nsamples = 10\nvalue = [0, 10]"] ;
85 -> 86 ;
87 [label="gini = 0.454\nsamples = 43\nvalue = [15, 28]"] ;
85 -> 87 ;
88 [label="gini = 0.278\nsamples = 6\nvalue = [5, 1]"] ;
84 -> 88 ;
89 [label="gini = 0.0\nsamples = 3\nvalue = [3, 0]"] ;
83 -> 89 ;
90 [label="d3 <= 0.972\ngini = 0.32\nsamples = 30\nvalue = [24, 6]"] ;
56 -> 90 ;
91 [label="a7 <= 0.25\ngini = 0.204\nsamples = 26\nvalue = [23, 3]"] ;
90 -> 91 ;
92 [label="d8 <= 0.491\ngini = 0.147\nsamples = 25\nvalue = [23, 2]"] ;
91 -> 92 ;
93 [label="d10 <= 0.761\ngini = 0.083\nsamples = 23\nvalue = [22, 1]"] ;
92 -> 93 ;
94 [label="gini = 0.32\nsamples = 5\nvalue = [4, 1]"] ;
93 -> 94 ;
95 [label="gini = 0.0\nsamples = 18\nvalue = [18, 0]"] ;
93 -> 95 ;
96 [label="gini = 0.5\nsamples = 2\nvalue = [1, 1]"] ;
92 -> 96 ;
97 [label="gini = 0.0\nsamples = 1\nvalue = [0, 1]"] ;
91 -> 97 ;
98 [label="gini = 0.375\nsamples = 4\nvalue = [1, 3]"] ;
90 -> 98 ;
}